digraph Tree {
node [shape=box] ;
0 [label="X[0] <= 0.5\ngini = 0.469\nsamples = 16\nvalue = [6, 10]"] ;
1 [label="X[1] <= 0.5\ngini = 0.375\nsamples = 4\nvalue = [3, 1]"] ;
0 -> 1 [labeldistance=2.5, labelangle=45, headlabel="True"] ;
2 [label="X[2] <= 0.5\ngini = 0.5\nsamples = 2\nvalue = [1, 1]"] ;
1 -> 2 ;
3 [label="gini = 0.0\nsamples = 1\nvalue = [1, 0]"] ;
2 -> 3 ;
4 [label="gini = 0.0\nsamples = 1\nvalue = [0, 1]"] ;
2 -> 4 ;
5 [label="gini = 0.0\nsamples = 2\nvalue = [2, 0]"] ;
1 -> 5 ;
6 [label="X[0] <= 1.5\ngini = 0.375\nsamples = 12\nvalue = [3, 9]"] ;
0 -> 6 [labeldistance=2.5, labelangle=-45, headlabel="False"] ;
7 [label="gini = 0.0\nsamples = 6\nvalue = [0, 6]"] ;
6 -> 7 ;
8 [label="X[1] <= 0.5\ngini = 0.5\nsamples = 6\nvalue = [3, 3]"] ;
6 -> 8 ;
9 [label="gini = 0.0\nsamples = 2\nvalue = [0, 2]"] ;
8 -> 9 ;
10 [label="X[1] <= 1.5\ngini = 0.375\nsamples = 4\nvalue = [3, 1]"] ;
8 -> 10 ;
11 [label="X[2] <= 0.5\ngini = 0.5\nsamples = 2\nvalue = [1, 1]"] ;
10 -> 11 ;
12 [label="gini = 0.0\nsamples = 1\nvalue = [1, 0]"] ;
11 -> 12 ;
13 [label="gini = 0.0\nsamples = 1\nvalue = [0, 1]"] ;
11 -> 13 ;
14 [label="gini = 0.0\nsamples = 2\nvalue = [2, 0]"] ;
10 -> 14 ;
}